1413394889.305760 -0.118597 2.038104 -0.119670 
1413394889.405761 1.197399 2.334929 3.339266 
1413394889.505760 -0.091168 0.683437 -0.139633 
1413394889.605761 0.207682 1.020026 0.661761 
1413394889.705760 -0.222855 -0.046317 -0.543112 
1413394889.805760 -0.020945 0.206669 0.011214 
1413394889.955760 -0.100163 0.508505 -0.162627 
1413394890.105761 -0.055029 0.446997 -0.052075 
1413394890.255760 -0.140692 0.303627 -0.275781 
1413394890.405761 -0.232296 -0.925053 -0.591915 
1413394890.555760 -0.184425 -1.498802 -0.478975 
1413394890.705760 -0.051987 -1.791045 -0.151318 
1413394890.855761 -0.138555 -1.319849 -0.367934 
1413394891.005760 -0.341978 -0.437575 -0.889767 
1413394891.205760 -0.859131 -0.453018 -2.496229 
1413394891.405761 -0.942280 -0.699727 -2.707200 
1413394891.555760 -0.927168 -2.518310 -2.487386 
1413394891.705760 -0.862712 -2.433295 -2.313763 
1413394891.855761 -0.720582 -2.577519 -1.906367 
1413394892.005760 -0.671843 -2.572268 -1.766319 
1413394892.205760 -0.674547 -2.480722 -1.787758 
1413394892.405761 -0.564189 -1.785328 -1.578635 
1413394892.605761 -0.467477 -1.239444 -1.350701 
1413394892.805760 -0.429490 -1.373111 -1.230801 
1413394893.005760 -0.417912 -0.554335 -1.261796 
1413394893.205760 -0.386375 -0.568352 -1.164912 
1413394893.405761 -0.327433 -0.297869 -1.003039 
1413394893.605761 -0.240787 -0.007418 -0.765711 
1413394893.805760 -0.219446 -0.015196 -0.700333 
1413394894.005760 -0.194521 -0.032533 -0.614973 
1413394894.205760 -0.173224 0.003152 -0.550394 
1413394894.405761 -0.052856 -0.013923 -0.149274 
1413394894.605761 -0.066781 0.028711 -0.204515 
1413394894.705760 -0.068727 0.035705 -0.212656 
1413394894.805760 -0.070780 0.022394 -0.217734 
1413394894.905761 -0.070516 0.026387 -0.218867 
1413394895.055760 -0.071912 0.025871 -0.224184 
1413394895.155761 -0.055639 0.041794 -0.180714 
1413394895.255760 -0.056529 0.044099 -0.183914 
1413394895.355761 -0.055792 0.044347 -0.181663 
1413394895.455760 -0.056123 0.044782 -0.182448 
1413394895.555760 -0.058317 0.042341 -0.188368 
1413394895.655761 -0.056918 0.040508 -0.184280 
1413394895.805760 -0.054237 0.038502 -0.174395 
1413394895.955760 -0.053988 0.041012 -0.175271 
1413394896.055760 -0.046553 0.047236 -0.148185 
1413394896.205760 -0.046356 0.043916 -0.144666 
1413394896.355761 -0.047571 0.047220 -0.147108 
1413394896.505760 -0.047319 0.046885 -0.147627 
1413394896.605761 -0.034262 0.055488 -0.097483 
1413394896.755760 -0.032697 0.052695 -0.093696 
1413394896.905761 -0.033248 0.053713 -0.094269 
1413394897.055760 -0.029584 0.049883 -0.079090 
1413394897.205760 -0.030380 0.053240 -0.081241 
1413394897.405761 -0.029618 0.055948 -0.077011 
1413394897.605761 -0.025947 0.042683 -0.049619 
1413394897.805760 -0.025261 0.039749 -0.048988 
1413394898.005760 -0.021919 0.025706 -0.019456 
1413394898.205760 -0.018417 0.035471 -0.016853 
1413394898.455760 -0.016897 0.034527 -0.019903 
1413394898.705760 -0.004171 0.065739 0.019899 
1413394898.905761 -0.007636 0.063404 0.016450 
1413394899.155761 -0.014204 0.042512 0.029550 
1413394899.355761 -0.006537 0.059599 0.054938 
1413394899.605761 -0.007418 0.053529 0.052669 
1413394899.855761 -0.012248 0.051545 0.047195 
1413394900.055760 -0.013422 0.049790 0.039207 
1413394900.205760 -0.012638 0.051645 0.039232 
1413394900.405761 -0.013976 0.051361 0.039021 
1413394900.605761 -0.013316 0.052749 0.038936 
1413394900.805760 -0.012431 0.054670 0.039590 
1413394901.005760 -0.012632 0.052937 0.041926 
1413394901.155761 -0.014547 0.052845 0.046674 
1413394901.305760 -0.014939 0.052896 0.045830 
1413394901.455760 -0.014833 0.052903 0.046111 
1413394901.605761 -0.014637 0.052868 0.046603 
1413394901.755760 -0.014193 0.057590 0.050152 
1413394901.855761 -0.014090 0.057784 0.050027 
1413394901.955760 -0.014105 0.057616 0.050056 
1413394902.055760 -0.014084 0.057629 0.050105 
1413394902.155761 -0.014087 0.057599 0.050064 
1413394902.255760 -0.014106 0.057671 0.050079 
1413394902.355761 -0.014086 0.057688 0.050110 
1413394902.455760 -0.014071 0.057663 0.050130 
1413394902.555760 -0.013944 0.057599 0.050373 
1413394902.655761 -0.013932 0.057694 0.050359 
1413394902.755760 -0.013919 0.057633 0.050374 
1413394902.855761 -0.013911 0.057662 0.050435 
1413394902.955760 -0.013895 0.057674 0.050428 
1413394903.055760 -0.013903 0.057647 0.050408 
1413394903.255760 -0.013949 0.057767 0.050286 
1413394903.455760 -0.014251 0.059706 0.050140 
1413394903.705760 -0.014041 0.057849 0.051747 
1413394903.855761 -0.013284 0.059009 0.052708 
1413394904.005760 -0.013142 0.059825 0.053320 
1413394904.155761 -0.013279 0.059591 0.053196 
1413394904.305760 -0.012444 0.064158 0.053512 
1413394904.505760 -0.012297 0.064346 0.053464 
