1413394889.305760 -0.002389 0.024587 0.081795 
1413394889.405761 -0.002067 0.024642 0.081767 
1413394889.505760 -0.002076 0.024619 0.081823 
1413394889.605761 -0.002138 0.024548 0.081655 
1413394889.705760 -0.002465 0.024732 0.080993 
1413394889.805760 -0.002376 0.024331 0.080848 
1413394889.955760 -0.002142 0.024679 0.081451 
1413394890.105761 -0.002100 0.023905 0.081195 
1413394890.255760 -0.001957 0.023650 0.081495 
1413394890.405761 -0.002312 0.022606 0.082003 
1413394890.555760 -0.001997 0.022351 0.082210 
1413394890.705760 -0.001903 0.022267 0.082295 
1413394890.855761 -0.001638 0.023404 0.082234 
1413394891.005760 -0.001721 0.023970 0.082539 
1413394891.205760 -0.002347 0.018898 0.082719 
1413394891.405761 -0.002271 0.021881 0.082715 
1413394891.555760 -0.001755 0.025915 0.081586 
1413394891.705760 -0.001663 0.025483 0.081582 
1413394891.855761 -0.001627 0.024987 0.081631 
1413394892.005760 -0.001684 0.025004 0.081706 
1413394892.205760 -0.001619 0.024655 0.081705 
1413394892.405761 -0.001623 0.025475 0.081491 
1413394892.605761 -0.001855 0.025112 0.081514 
1413394892.805760 -0.002189 0.025124 0.081493 
1413394893.005760 -0.002193 0.025364 0.081609 
1413394893.205760 -0.002395 0.025022 0.081602 
1413394893.405761 -0.002387 0.024925 0.081550 
1413394893.605761 -0.003438 0.024822 0.081379 
1413394893.805760 -0.003547 0.024384 0.081262 
1413394894.005760 -0.004049 0.024519 0.081106 
1413394894.205760 -0.004408 0.024616 0.080946 
1413394894.405761 -0.006226 0.024961 0.080450 
1413394894.605761 -0.005664 0.024637 0.080644 
1413394894.705760 -0.005246 0.024674 0.080731 
1413394894.805760 -0.005090 0.024721 0.080739 
1413394894.905761 -0.004958 0.024704 0.080729 
1413394895.055760 -0.004887 0.024759 0.080752 
1413394895.155761 -0.005566 0.024954 0.080838 
1413394895.255760 -0.005468 0.024815 0.080800 
1413394895.355761 -0.005501 0.024688 0.080760 
1413394895.455760 -0.005525 0.024713 0.080781 
1413394895.555760 -0.005401 0.024870 0.080845 
1413394895.655761 -0.005417 0.024921 0.080786 
1413394895.805760 -0.005380 0.024596 0.080859 
1413394895.955760 -0.005336 0.024483 0.080870 
1413394896.055760 -0.005519 0.024228 0.081070 
1413394896.205760 -0.005670 0.023997 0.081036 
1413394896.355761 -0.005668 0.023930 0.080964 
1413394896.505760 -0.005611 0.024051 0.080975 
1413394896.605761 -0.005546 0.024173 0.080982 
1413394896.755760 -0.005512 0.023900 0.080973 
1413394896.905761 -0.005520 0.023876 0.080974 
1413394897.055760 -0.005551 0.023773 0.080860 
1413394897.205760 -0.005607 0.023752 0.080848 
1413394897.405761 -0.005461 0.023867 0.080900 
1413394897.605761 -0.004944 0.023478 0.080602 
1413394897.805760 -0.004673 0.023375 0.080642 
1413394898.005760 -0.003936 0.024012 0.080595 
1413394898.205760 -0.004320 0.023340 0.080502 
1413394898.455760 -0.003843 0.023274 0.080562 
1413394898.705760 -0.003686 0.023454 0.080592 
1413394898.905761 -0.003456 0.023312 0.080527 
1413394899.155761 -0.003771 0.023475 0.080564 
1413394899.355761 -0.003300 0.023629 0.080534 
1413394899.605761 -0.003536 0.023616 0.080480 
1413394899.855761 -0.003454 0.023608 0.080522 
1413394900.055760 -0.003398 0.023380 0.080481 
1413394900.205760 -0.003417 0.023309 0.080508 
1413394900.405761 -0.003475 0.023341 0.080520 
1413394900.605761 -0.003520 0.023354 0.080522 
1413394900.805760 -0.003533 0.023351 0.080514 
1413394901.005760 -0.003602 0.023237 0.080585 
1413394901.155761 -0.003668 0.023527 0.080643 
1413394901.305760 -0.003653 0.023638 0.080625 
1413394901.455760 -0.003626 0.023666 0.080581 
1413394901.605761 -0.003729 0.023643 0.080600 
1413394901.755760 -0.003724 0.023699 0.080536 
1413394901.855761 -0.003727 0.023691 0.080537 
1413394901.955760 -0.003729 0.023716 0.080541 
1413394902.055760 -0.003709 0.023740 0.080546 
1413394902.155761 -0.003726 0.023726 0.080546 
1413394902.255760 -0.003721 0.023756 0.080535 
1413394902.355761 -0.003725 0.023760 0.080538 
1413394902.455760 -0.003740 0.023754 0.080538 
1413394902.555760 -0.003778 0.023786 0.080517 
1413394902.655761 -0.003762 0.023764 0.080513 
1413394902.755760 -0.003748 0.023762 0.080526 
1413394902.855761 -0.003743 0.023792 0.080523 
1413394902.955760 -0.003746 0.023778 0.080529 
1413394903.055760 -0.003744 0.023771 0.080534 
1413394903.255760 -0.003756 0.023756 0.080572 
1413394903.455760 -0.003631 0.023707 0.080505 
1413394903.705760 -0.003746 0.023837 0.080524 
1413394903.855761 -0.003729 0.023849 0.080559 
1413394904.005760 -0.003709 0.023986 0.080501 
1413394904.155761 -0.003678 0.023984 0.080487 
1413394904.305760 -0.003533 0.023861 0.080486 
1413394904.505760 -0.003460 0.023768 0.080498 
