1413394889.055760 -0.002291 0.026229 0.081623 
1413394889.155761 -0.002057 0.025839 0.081922 
1413394889.305760 -0.001939 0.025800 0.082629 
1413394889.455760 -0.002648 0.023038 0.082394 
1413394889.555760 -0.002028 0.023894 0.082239 
1413394889.705760 -0.002532 0.025224 0.081328 
1413394889.855761 -0.001718 0.028187 0.081011 
1413394890.005760 -0.001943 0.028034 0.080872 
1413394890.155761 -0.002769 0.025983 0.080587 
1413394890.305760 -0.003023 0.026293 0.080600 
1413394890.455760 -0.003410 0.024759 0.080729 
1413394890.605761 -0.003346 0.024312 0.081062 
1413394890.755760 -0.003356 0.024066 0.081207 
1413394890.905761 -0.003594 0.024246 0.081334 
1413394891.055760 -0.003389 0.024686 0.081242 
1413394891.205760 -0.002376 0.025479 0.081767 
1413394891.355761 -0.002419 0.027396 0.081717 
1413394891.505760 -0.002269 0.027179 0.081569 
1413394891.655761 -0.002029 0.027169 0.081448 
1413394891.805760 -0.001814 0.026052 0.080954 
1413394892.005760 -0.001910 0.025811 0.081087 
1413394892.205760 -0.001912 0.026111 0.081219 
1413394892.405761 -0.002065 0.026391 0.081325 
1413394892.605761 -0.002506 0.026387 0.081152 
1413394892.805760 -0.002590 0.026143 0.081124 
1413394893.005760 -0.002417 0.026485 0.081245 
1413394893.205760 -0.002628 0.026339 0.081224 
1413394893.405761 -0.002704 0.026111 0.081240 
1413394893.605761 -0.002888 0.026022 0.081286 
1413394893.805760 -0.003008 0.025823 0.081295 
1413394894.055760 -0.004318 0.025640 0.081240 
1413394894.305760 -0.006291 0.026458 0.080423 
1413394894.505760 -0.006592 0.025801 0.080549 
1413394894.655761 -0.006461 0.025584 0.080487 
1413394894.755760 -0.005944 0.025851 0.080583 
1413394894.855761 -0.005358 0.026058 0.080572 
1413394894.955760 -0.005341 0.026086 0.080579 
1413394895.055760 -0.005324 0.026049 0.080565 
1413394895.155761 -0.005302 0.026119 0.080560 
1413394895.255760 -0.005264 0.026108 0.080571 
1413394895.355761 -0.005615 0.025871 0.080478 
1413394895.455760 -0.005509 0.025770 0.080439 
1413394895.555760 -0.005454 0.025702 0.080437 
1413394895.655761 -0.005485 0.025532 0.080371 
1413394895.805760 -0.005633 0.025401 0.080341 
1413394895.955760 -0.005577 0.025453 0.080345 
1413394896.155761 -0.005366 0.025339 0.080401 
1413394896.305760 -0.005430 0.025094 0.080135 
1413394896.455760 -0.005417 0.024784 0.080229 
1413394896.605761 -0.005323 0.024635 0.080153 
1413394896.755760 -0.005498 0.024719 0.080276 
1413394896.905761 -0.005430 0.024605 0.080287 
1413394897.055760 -0.005488 0.024603 0.080259 
1413394897.205760 -0.005423 0.024570 0.080288 
1413394897.405761 -0.005028 0.024056 0.080170 
1413394897.605761 -0.004930 0.024275 0.080007 
1413394897.805760 -0.004618 0.024223 0.080236 
1413394898.005760 -0.003868 0.024961 0.080028 
1413394898.205760 -0.003701 0.024824 0.080026 
1413394898.405761 -0.003312 0.024922 0.080192 
1413394898.705760 -0.003290 0.024997 0.080134 
1413394898.905761 -0.003332 0.024687 0.080151 
1413394899.155761 -0.003242 0.024792 0.080190 
1413394899.355761 -0.002807 0.024642 0.080219 
1413394899.605761 -0.002404 0.024390 0.080306 
1413394899.855761 -0.002559 0.024394 0.080346 
1413394900.055760 -0.002562 0.024456 0.080425 
1413394900.305760 -0.002697 0.024356 0.080488 
1413394900.505760 -0.002652 0.024352 0.080530 
1413394900.705760 -0.002677 0.024357 0.080507 
1413394900.905761 -0.002707 0.024336 0.080528 
1413394901.105761 -0.002878 0.024197 0.080623 
1413394901.255760 -0.002895 0.024211 0.080613 
1413394901.405761 -0.002855 0.024245 0.080586 
1413394901.555760 -0.002995 0.024218 0.080606 
1413394901.705760 -0.003090 0.024179 0.080638 
1413394901.855761 -0.003082 0.024174 0.080636 
1413394901.955760 -0.003059 0.024203 0.080629 
1413394902.055760 -0.003098 0.024220 0.080627 
1413394902.155761 -0.003115 0.024255 0.080616 
1413394902.255760 -0.003087 0.024246 0.080616 
1413394902.355761 -0.003087 0.024251 0.080611 
1413394902.455760 -0.003103 0.024273 0.080604 
1413394902.555760 -0.003102 0.024252 0.080594 
1413394902.655761 -0.003095 0.024265 0.080580 
1413394902.755760 -0.003073 0.024262 0.080597 
1413394902.855761 -0.003071 0.024250 0.080610 
1413394902.955760 -0.003084 0.024257 0.080612 
1413394903.155761 -0.003012 0.024217 0.080554 
1413394903.355761 -0.003011 0.024356 0.080622 
1413394903.455760 -0.002811 0.024331 0.080593 
1413394903.655761 -0.002847 0.024291 0.080563 
1413394903.805760 -0.002915 0.024340 0.080578 
1413394903.955760 -0.002924 0.024309 0.080559 
1413394904.105761 -0.002911 0.024342 0.080552 
1413394904.255760 -0.002963 0.024613 0.080426 
