1413394889.055760 -0.573577 -1.619735 -1.486794 
1413394889.255760 -0.212149 1.653040 -0.360088 
1413394889.355761 -0.793853 -2.310060 -2.146094 
1413394889.405761 -0.562049 -1.530685 -1.468759 
1413394889.505760 -0.426990 -1.233661 -1.106795 
1413394889.605761 -1.636432 -2.498416 -4.415578 
1413394889.705760 -1.446483 -2.403891 -3.886230 
1413394889.805760 -1.236417 -2.395280 -3.312466 
1413394889.905761 -1.090990 -3.285826 -3.034981 
1413394890.005760 -0.174355 -1.296029 -0.444685 
1413394890.105761 -0.224500 -1.227224 -0.578851 
1413394890.205760 -0.013315 -0.489351 0.040145 
1413394890.305760 -0.049241 -0.358052 -0.053059 
1413394890.405761 -0.135412 -0.967086 -0.350534 
1413394890.505760 -0.156476 -0.853052 -0.408318 
1413394890.605761 -0.169866 -0.817773 -0.430954 
1413394890.705760 -0.063008 -0.841805 -0.150445 
1413394890.855761 -0.046834 -0.929120 -0.112842 
1413394890.955760 -0.071265 0.235913 -0.144575 
1413394891.055760 0.010222 -0.064910 0.074135 
1413394891.155761 -0.054595 1.024385 -0.084222 
1413394891.255760 -0.012326 1.394184 0.026000 
1413394891.355761 0.015765 0.766875 0.108039 
1413394891.405761 -0.217405 -1.173404 -0.599811 
1413394891.505760 -0.214816 -1.219677 -0.588099 
1413394891.605761 -0.206607 -1.347245 -0.559538 
1413394891.705760 -0.229707 -1.419564 -0.621167 
1413394891.805760 -0.242833 -1.459548 -0.654183 
1413394891.905761 -0.222472 -1.658064 -0.586725 
1413394892.005760 -0.211690 -1.687819 -0.557930 
1413394892.105761 -0.223814 -1.950479 -0.517533 
1413394892.205760 -0.236818 -2.033529 -0.551832 
1413394892.305760 -0.235756 -2.027236 -0.549210 
1413394892.405761 -0.239431 -2.044113 -0.557811 
1413394892.505760 -0.246928 -1.935006 -0.584921 
1413394892.605761 -0.244930 -1.939757 -0.580166 
1413394892.705760 -0.240224 -1.936210 -0.566409 
1413394892.805760 -0.224147 -1.413663 -0.531397 
1413394892.905761 -0.224480 -1.419692 -0.530350 
1413394893.005760 -0.180530 -0.759088 -0.420865 
1413394893.105761 -0.176152 -0.729680 -0.415672 
1413394893.255760 -0.148476 -0.821393 -0.338339 
1413394893.355761 -0.175973 -0.821970 -0.418033 
1413394893.455760 -0.188072 -0.841940 -0.450627 
1413394893.555760 -0.189982 -0.835657 -0.458398 
1413394893.655761 -0.171959 -0.614621 -0.412180 
1413394893.755760 -0.171851 -0.625362 -0.411669 
1413394893.855761 -0.157927 -0.556180 -0.374411 
1413394893.955760 -0.129518 -0.312177 -0.299424 
1413394894.055760 -0.067442 -0.045865 -0.123906 
1413394894.155761 -0.069570 -0.034527 -0.131457 
1413394894.255760 -0.068281 -0.036251 -0.122575 
1413394894.355761 -0.050961 -0.020815 -0.074103 
1413394894.455760 -0.032895 0.035756 -0.019149 
1413394894.555760 -0.011264 0.049372 0.047041 
1413394894.655761 -0.011069 0.054226 0.047642 
1413394894.755760 -0.021048 0.044575 0.019705 
1413394894.855761 -0.023169 0.048846 0.011236 
1413394894.955760 -0.008143 0.068328 0.045410 
1413394895.055760 -0.006909 0.064769 0.048239 
1413394895.155761 -0.012292 0.066830 0.031856 
1413394895.255760 -0.011205 0.069235 0.034404 
1413394895.355761 -0.009230 0.064875 0.041534 
1413394895.455760 -0.008386 0.062465 0.044208 
1413394895.555760 -0.009275 0.068978 0.041070 
1413394895.605761 -0.008874 0.070942 0.042050 
1413394895.705760 -0.009219 0.079319 0.040934 
1413394895.805760 -0.009593 0.081124 0.039598 
1413394895.905761 -0.012163 0.079101 0.033651 
1413394896.005760 -0.013759 0.072420 0.034054 
1413394896.105761 -0.014448 0.072309 0.032264 
1413394896.205760 -0.014670 0.071990 0.032522 
1413394896.255760 -0.021315 0.085956 0.010575 
1413394896.355761 -0.020974 0.094075 0.009135 
1413394896.455760 -0.021648 0.091982 0.008621 
1413394896.555760 -0.020522 0.089735 0.013012 
1413394896.655761 -0.021360 0.090915 0.009781 
1413394896.755760 -0.022965 0.087603 0.006222 
1413394896.855761 -0.021451 0.080632 0.008454 
1413394896.955760 -0.019747 0.077151 0.014730 
1413394897.055760 -0.018772 0.078859 0.017457 
1413394897.155761 -0.019588 0.080397 0.016304 
1413394897.255760 -0.021496 0.091336 0.015075 
1413394897.355761 -0.019575 0.082273 0.019760 
1413394897.455760 -0.024045 0.081605 0.036296 
1413394897.555760 -0.028061 0.078026 0.028095 
1413394897.655761 -0.024920 0.082417 0.033366 
1413394897.755760 -0.024864 0.085548 0.034066 
1413394897.805760 -0.026838 0.088020 0.026484 
1413394897.905761 -0.040143 0.071332 0.046778 
1413394898.005760 -0.038315 0.069812 0.047412 
1413394898.055760 -0.040272 0.063687 0.047372 
1413394898.155761 -0.040086 0.058050 0.050685 
1413394898.255760 -0.041254 0.061878 0.048166 
1413394898.355761 -0.045827 0.063782 0.034648 
1413394898.455760 -0.036215 0.067367 0.044995 
1413394898.555760 -0.033908 0.068229 0.048300 
1413394898.655761 -0.032750 0.062923 0.055382 
1413394898.755760 -0.031115 0.067031 0.059446 
1413394898.855761 -0.030135 0.069480 0.064812 
1413394898.955760 -0.030144 0.069688 0.067463 
1413394899.055760 -0.029823 0.073050 0.069212 
1413394899.155761 -0.029790 0.073405 0.069955 
1413394899.255760 -0.028090 0.076437 0.076541 
1413394899.355761 -0.027309 0.080133 0.077884 
1413394899.455760 -0.027321 0.082051 0.073991 
1413394899.555760 -0.030456 0.080380 0.068154 
1413394899.655761 -0.029684 0.081533 0.065856 
1413394899.755760 -0.028174 0.088444 0.066156 
1413394899.855761 -0.029761 0.083356 0.064907 
1413394899.955760 -0.027324 0.086953 0.066181 
1413394900.055760 -0.026980 0.084425 0.067654 
1413394900.155761 -0.027323 0.083937 0.067180 
1413394900.255760 -0.026873 0.084440 0.066268 
1413394900.305760 -0.025869 0.085038 0.065569 
1413394900.405761 -0.027226 0.083806 0.063606 
1413394900.505760 -0.026555 0.082777 0.065445 
1413394900.605761 -0.026382 0.081681 0.065119 
1413394900.705760 -0.026576 0.083239 0.064437 
1413394900.805760 -0.026316 0.082038 0.067708 
1413394900.905761 -0.026930 0.081177 0.065978 
1413394901.005760 -0.027829 0.080124 0.066201 
1413394901.105761 -0.028853 0.078904 0.064954 
1413394901.205760 -0.028724 0.079383 0.064068 
1413394901.305760 -0.028868 0.078930 0.063491 
1413394901.405761 -0.028849 0.078840 0.063581 
1413394901.505760 -0.028889 0.078822 0.063588 
1413394901.605761 -0.028935 0.078894 0.063519 
1413394901.705760 -0.028939 0.078884 0.063538 
1413394901.805760 -0.028933 0.078877 0.063572 
1413394901.905761 -0.028919 0.078887 0.063569 
1413394902.005760 -0.028923 0.078981 0.063573 
1413394902.105761 -0.028915 0.078894 0.063569 
1413394902.205760 -0.028894 0.078803 0.063667 
1413394902.255760 -0.028911 0.078831 0.063629 
1413394902.355761 -0.028896 0.078846 0.063663 
1413394902.455760 -0.028882 0.078824 0.063709 
1413394902.555760 -0.028869 0.078833 0.063723 
1413394902.655761 -0.028864 0.078917 0.063736 
1413394902.755760 -0.028832 0.079840 0.063925 
1413394902.855761 -0.028943 0.079949 0.063799 
1413394902.955760 -0.028171 0.078636 0.065019 
1413394903.155761 -0.028186 0.079133 0.065109 
1413394903.355761 -0.028136 0.078580 0.064741 
1413394903.555760 -0.027745 0.080394 0.065310 
1413394903.655761 -0.027753 0.080446 0.065490 
1413394903.805760 -0.027439 0.080534 0.065733 
1413394903.905761 -0.026297 0.080408 0.065719 
1413394904.005760 -0.026242 0.080475 0.065217 
1413394904.105761 -0.026076 0.080087 0.065527 
1413394904.205760 -0.026383 0.079588 0.064724 
