1413394889.055760 -0.002838 0.024925 0.080855 
1413394889.255760 -0.001900 0.025627 0.081034 
1413394889.355761 -0.001525 0.026181 0.080253 
1413394889.405761 -0.001596 0.025986 0.080222 
1413394889.505760 -0.001540 0.025596 0.080418 
1413394889.605761 -0.001424 0.026124 0.080360 
1413394889.705760 -0.001716 0.026291 0.080488 
1413394889.805760 -0.001817 0.026317 0.080304 
1413394889.905761 -0.001821 0.024543 0.080645 
1413394890.005760 -0.002152 0.027407 0.080025 
1413394890.105761 -0.002110 0.027005 0.080201 
1413394890.205760 -0.002227 0.026372 0.080360 
1413394890.305760 -0.002049 0.026367 0.080634 
1413394890.405761 -0.002007 0.024217 0.081712 
1413394890.505760 -0.001982 0.023908 0.081432 
1413394890.605761 -0.002004 0.023745 0.081377 
1413394890.705760 -0.002241 0.024214 0.081109 
1413394890.855761 -0.002296 0.024897 0.081325 
1413394890.955760 -0.001978 0.026616 0.081994 
1413394891.055760 -0.002035 0.027172 0.081555 
1413394891.155761 -0.001853 0.027908 0.081366 
1413394891.255760 -0.002206 0.028053 0.081313 
1413394891.355761 -0.002131 0.027700 0.081355 
1413394891.405761 -0.001998 0.027103 0.081385 
1413394891.505760 -0.001822 0.026860 0.081584 
1413394891.605761 -0.001637 0.026622 0.081540 
1413394891.705760 -0.001618 0.026903 0.081474 
1413394891.805760 -0.001599 0.026781 0.081409 
1413394891.905761 -0.001583 0.026079 0.081337 
1413394892.005760 -0.001595 0.025898 0.081418 
1413394892.105761 -0.001472 0.023286 0.081579 
1413394892.205760 -0.001442 0.023418 0.081511 
1413394892.305760 -0.001448 0.023191 0.081514 
1413394892.405761 -0.001417 0.022887 0.081430 
1413394892.505760 -0.001452 0.023164 0.081515 
1413394892.605761 -0.001470 0.023392 0.081681 
1413394892.705760 -0.001484 0.023374 0.081772 
1413394892.805760 -0.002004 0.023368 0.081709 
1413394892.905761 -0.001869 0.023536 0.081746 
1413394893.005760 -0.001919 0.023705 0.081832 
1413394893.105761 -0.001890 0.023677 0.081788 
1413394893.255760 -0.003112 0.023482 0.081506 
1413394893.355761 -0.003013 0.023390 0.081441 
1413394893.455760 -0.003210 0.023231 0.081585 
1413394893.555760 -0.003287 0.023146 0.081559 
1413394893.655761 -0.003441 0.023047 0.081603 
1413394893.755760 -0.003718 0.022642 0.081588 
1413394893.855761 -0.003991 0.022448 0.081529 
1413394893.955760 -0.004262 0.022350 0.081713 
1413394894.055760 -0.004529 0.022276 0.081771 
1413394894.155761 -0.004296 0.022513 0.081670 
1413394894.255760 -0.004481 0.022388 0.081430 
1413394894.355761 -0.004364 0.022240 0.081361 
1413394894.455760 -0.005384 0.022284 0.081294 
1413394894.555760 -0.005952 0.023127 0.081168 
1413394894.655761 -0.005351 0.023491 0.081269 
1413394894.755760 -0.005120 0.023614 0.081290 
1413394894.855761 -0.005024 0.023568 0.081223 
1413394894.955760 -0.005136 0.023561 0.081217 
1413394895.055760 -0.004856 0.023540 0.081134 
1413394895.155761 -0.004914 0.023507 0.081116 
1413394895.255760 -0.004907 0.023513 0.081106 
1413394895.355761 -0.005109 0.023433 0.081061 
1413394895.455760 -0.005107 0.023435 0.081026 
1413394895.555760 -0.005108 0.023443 0.081039 
1413394895.605761 -0.005108 0.023416 0.081022 
1413394895.705760 -0.005208 0.023388 0.081026 
1413394895.805760 -0.005428 0.023234 0.081048 
1413394895.905761 -0.005343 0.023190 0.081039 
1413394896.005760 -0.005309 0.023044 0.080957 
1413394896.105761 -0.005256 0.023004 0.080974 
1413394896.205760 -0.005161 0.023003 0.080975 
1413394896.255760 -0.005024 0.022291 0.080862 
1413394896.355761 -0.005051 0.022282 0.080891 
1413394896.455760 -0.005115 0.022487 0.080897 
1413394896.555760 -0.005060 0.022486 0.080882 
1413394896.655761 -0.005084 0.022329 0.080804 
1413394896.755760 -0.005024 0.022226 0.080772 
1413394896.855761 -0.005322 0.021617 0.080671 
1413394896.955760 -0.005232 0.021897 0.080822 
1413394897.055760 -0.005341 0.022072 0.080894 
1413394897.155761 -0.005351 0.022013 0.080907 
1413394897.255760 -0.005427 0.021854 0.080814 
1413394897.355761 -0.005171 0.021993 0.080772 
1413394897.455760 -0.004827 0.022171 0.080814 
1413394897.555760 -0.004818 0.022136 0.080822 
1413394897.655761 -0.004582 0.022447 0.080852 
1413394897.755760 -0.004666 0.022548 0.080862 
1413394897.805760 -0.004483 0.022512 0.080707 
1413394897.905761 -0.004546 0.022574 0.080567 
1413394898.005760 -0.004056 0.023239 0.080432 
1413394898.055760 -0.003985 0.023205 0.080435 
1413394898.155761 -0.003872 0.023203 0.080416 
1413394898.255760 -0.003774 0.023253 0.080447 
1413394898.355761 -0.003870 0.023270 0.080439 
1413394898.455760 -0.003618 0.023281 0.080438 
1413394898.555760 -0.003547 0.023342 0.080507 
1413394898.655761 -0.003646 0.023412 0.080607 
1413394898.755760 -0.003573 0.023298 0.080498 
1413394898.855761 -0.003280 0.023391 0.080556 
1413394898.955760 -0.003252 0.023379 0.080534 
1413394899.055760 -0.003219 0.023269 0.080544 
1413394899.155761 -0.003200 0.023139 0.080477 
1413394899.255760 -0.003105 0.023193 0.080487 
1413394899.355761 -0.003111 0.023238 0.080368 
1413394899.455760 -0.003410 0.023178 0.080358 
1413394899.555760 -0.003466 0.023154 0.080323 
1413394899.655761 -0.003569 0.023287 0.080262 
1413394899.755760 -0.003481 0.023481 0.080278 
1413394899.855761 -0.003450 0.023398 0.080306 
1413394899.955760 -0.003400 0.023477 0.080334 
1413394900.055760 -0.003371 0.023533 0.080387 
1413394900.155761 -0.003428 0.023479 0.080373 
1413394900.255760 -0.003443 0.023502 0.080402 
1413394900.305760 -0.003493 0.023595 0.080442 
1413394900.405761 -0.003547 0.023595 0.080450 
1413394900.505760 -0.003502 0.023659 0.080446 
1413394900.605761 -0.003514 0.023742 0.080481 
1413394900.705760 -0.003561 0.023652 0.080619 
1413394900.805760 -0.003545 0.023634 0.080550 
1413394900.905761 -0.003594 0.023631 0.080579 
1413394901.005760 -0.003554 0.023622 0.080555 
1413394901.105761 -0.003550 0.023582 0.080558 
1413394901.205760 -0.003636 0.023553 0.080630 
1413394901.305760 -0.003617 0.023511 0.080643 
1413394901.405761 -0.003641 0.023505 0.080615 
1413394901.505760 -0.003644 0.023509 0.080611 
1413394901.605761 -0.003624 0.023531 0.080606 
1413394901.705760 -0.003623 0.023540 0.080608 
1413394901.805760 -0.003636 0.023557 0.080614 
1413394901.905761 -0.003652 0.023555 0.080609 
1413394902.005760 -0.003633 0.023563 0.080600 
1413394902.105761 -0.003652 0.023554 0.080604 
1413394902.205760 -0.003635 0.023589 0.080612 
1413394902.255760 -0.003628 0.023581 0.080610 
1413394902.355761 -0.003624 0.023602 0.080607 
1413394902.455760 -0.003606 0.023615 0.080592 
1413394902.555760 -0.003603 0.023613 0.080582 
1413394902.655761 -0.003597 0.023623 0.080570 
1413394902.755760 -0.003725 0.023632 0.080587 
1413394902.855761 -0.003652 0.023597 0.080598 
1413394902.955760 -0.003696 0.023602 0.080602 
1413394903.155761 -0.003672 0.023699 0.080551 
1413394903.355761 -0.003632 0.023716 0.080564 
1413394903.555760 -0.003672 0.023631 0.080563 
1413394903.655761 -0.003669 0.023630 0.080568 
1413394903.805760 -0.003667 0.023598 0.080584 
1413394903.905761 -0.003778 0.023323 0.080700 
1413394904.005760 -0.003781 0.023215 0.080688 
1413394904.105761 -0.003766 0.023252 0.080626 
1413394904.205760 -0.003832 0.023185 0.080598 
