1403715532.062143 -0.000296 0.021145 0.077118 
1403715532.262143 -0.000907 0.021137 0.076952 
1403715532.462143 -0.001310 0.021683 0.076510 
1403715532.712143 -0.002352 0.020517 0.075876 
1403715532.912143 -0.002811 0.019669 0.075111 
1403715533.162143 -0.001984 0.019396 0.075210 
1403715533.412143 -0.001275 0.021171 0.075511 
1403715533.662143 -0.001132 0.020732 0.075257 
1403715533.912143 -0.001440 0.020909 0.075644 
1403715534.162143 -0.001432 0.020190 0.074814 
1403715534.462143 -0.001953 0.020127 0.074602 
1403715534.712143 -0.001371 0.020364 0.074582 
1403715534.962143 -0.001433 0.019510 0.075082 
1403715535.162143 -0.001413 0.019290 0.075113 
1403715535.362143 -0.001490 0.019441 0.075057 
1403715535.612143 -0.001418 0.019325 0.075147 
1403715535.812143 -0.001514 0.019539 0.075225 
1403715536.012143 -0.001558 0.019661 0.075190 
1403715536.162143 -0.001598 0.019683 0.075195 
1403715536.362143 -0.001743 0.019749 0.075182 
1403715536.562143 -0.001742 0.019579 0.075205 
1403715536.812143 -0.001871 0.019516 0.075283 
1403715537.012143 -0.001816 0.019544 0.075329 
1403715537.262143 -0.001756 0.019636 0.075274 
1403715537.512143 -0.001999 0.019770 0.075295 
1403715537.762143 -0.001805 0.019520 0.075333 
1403715538.062143 -0.001724 0.019615 0.075443 
1403715538.362143 -0.001400 0.019722 0.075332 
1403715538.712143 -0.001349 0.019764 0.075328 
1403715539.062143 -0.001300 0.019759 0.075058 
1403715539.412143 -0.001402 0.020038 0.074905 
1403715539.812143 -0.002013 0.020053 0.074947 
1403715540.162143 -0.002091 0.020243 0.074898 
1403715540.462143 -0.001985 0.020165 0.075053 
1403715540.812143 -0.002021 0.020117 0.074968 
1403715541.162143 -0.001934 0.020038 0.075078 
1403715541.512143 -0.002079 0.020150 0.075190 
1403715541.862143 -0.002004 0.020098 0.075253 
1403715542.112143 -0.002120 0.020059 0.075244 
1403715542.312143 -0.002102 0.020024 0.075226 
1403715542.562143 -0.002259 0.020254 0.075196 
1403715542.812143 -0.002197 0.020358 0.075242 
1403715543.262143 -0.002155 0.020305 0.075117 
1403715543.662143 -0.002156 0.020263 0.075285 
1403715544.062143 -0.001696 0.020155 0.075360 
1403715544.362143 -0.001748 0.020128 0.075268 
1403715544.662143 -0.001812 0.020305 0.075197 
1403715544.962143 -0.001938 0.020454 0.075313 
1403715545.262143 -0.001900 0.020265 0.075265 
1403715545.612143 -0.002223 0.020291 0.075144 
1403715545.912143 -0.002223 0.020340 0.075197 
1403715546.212143 -0.002269 0.020240 0.075274 
1403715546.512143 -0.002302 0.020271 0.075310 
1403715547.012143 -0.002071 0.020433 0.075499 
1403715547.562143 -0.001654 0.019956 0.075823 
