1403715532.062143 0.208763 0.789993 0.812809 
1403715532.262143 0.114761 0.720333 0.571445 
1403715532.462143 0.104268 0.923261 0.591982 
1403715532.712143 0.050395 0.662215 0.377494 
1403715532.912143 0.160521 0.758622 0.671639 
1403715533.162143 0.158122 0.623427 0.655567 
1403715533.412143 0.046360 0.064098 0.377381 
1403715533.662143 0.103680 0.039422 0.548384 
1403715533.912143 -0.017103 -0.238377 0.224269 
1403715534.162143 -0.018444 -0.542852 0.156051 
1403715534.462143 -0.047853 -0.507497 0.060945 
1403715534.712143 0.036067 -0.449971 0.337772 
1403715534.962143 -0.035951 -0.268419 0.092035 
1403715535.162143 -0.034108 -0.278876 0.096927 
1403715535.362143 -0.033140 -0.276034 0.100918 
1403715535.612143 -0.029031 -0.259697 0.108559 
1403715535.812143 -0.029612 -0.238805 0.103745 
1403715536.012143 -0.028818 -0.235975 0.104155 
1403715536.162143 -0.029541 -0.235734 0.100507 
1403715536.362143 -0.030152 -0.235025 0.098908 
1403715536.562143 -0.028292 -0.227666 0.101027 
1403715536.812143 -0.028075 -0.222214 0.100499 
1403715537.012143 -0.025881 -0.217609 0.105589 
1403715537.262143 -0.023485 -0.213030 0.111239 
1403715537.512143 -0.021762 -0.197258 0.110694 
1403715537.762143 -0.016323 -0.191592 0.124122 
1403715538.062143 -0.020809 -0.180747 0.109148 
1403715538.362143 -0.018710 -0.152275 0.110471 
1403715538.712143 -0.020736 -0.126224 0.094298 
1403715539.062143 -0.015590 -0.021246 0.085697 
1403715539.412143 -0.006119 0.080402 0.091090 
1403715539.812143 0.011020 0.114812 0.131398 
1403715540.162143 0.007184 0.137655 0.129551 
1403715540.462143 0.008365 0.145120 0.131371 
1403715540.812143 0.009304 0.153095 0.127987 
1403715541.162143 0.010989 0.159655 0.130342 
1403715541.512143 0.008648 0.157333 0.125171 
1403715541.862143 0.010189 0.166157 0.124960 
1403715542.112143 0.009151 0.164395 0.120705 
1403715542.312143 0.009555 0.165280 0.121268 
1403715542.562143 0.008777 0.165581 0.119936 
1403715542.812143 0.009801 0.164672 0.122301 
1403715543.262143 0.010684 0.168710 0.119946 
1403715543.662143 0.010031 0.171237 0.122690 
1403715544.062143 0.011641 0.176569 0.130241 
1403715544.362143 0.010187 0.176010 0.123367 
1403715544.662143 0.009330 0.176170 0.124223 
1403715544.962143 0.008866 0.173799 0.124066 
1403715545.262143 0.010252 0.174434 0.126136 
1403715545.612143 0.008228 0.177908 0.120853 
1403715545.912143 0.008278 0.174989 0.120433 
1403715546.212143 0.008580 0.176455 0.118884 
1403715546.512143 0.007501 0.174842 0.117830 
1403715547.012143 0.008198 0.172526 0.127740 
1403715547.562143 0.009221 0.185695 0.098465 
