1413394889.055760 -0.934877 -2.619376 -2.614528 
1413394889.155761 -1.299343 -1.080734 -3.442254 
1413394889.305760 -1.403971 -0.625922 -3.725557 
1413394889.455760 1.386459 4.014245 3.826477 
1413394889.555760 0.470937 3.341482 1.444461 
1413394889.705760 -0.327257 1.559486 -0.725586 
1413394889.855761 -0.134095 2.338811 -0.166728 
1413394890.005760 -0.159231 2.135365 -0.264913 
1413394890.155761 -0.117878 1.912140 -0.169701 
1413394890.305760 -0.094836 2.318657 -0.097820 
1413394890.455760 -0.019936 2.294486 0.138870 
1413394890.605761 -0.092644 1.030116 -0.063635 
1413394890.755760 -0.224803 -1.552678 -0.376592 
1413394890.905761 -0.232588 -0.575711 -0.441688 
1413394891.055760 -0.161308 -0.868952 -0.226096 
1413394891.205760 -0.047950 -2.877794 0.085595 
1413394891.355761 -0.065785 -3.512519 0.072151 
1413394891.505760 -0.087386 -3.197085 0.005334 
1413394891.655761 -0.091145 -3.297764 -0.005548 
1413394891.805760 -0.021582 -1.484072 -0.010765 
1413394892.005760 -0.024514 -1.514525 -0.016355 
1413394892.205760 -0.007737 -1.535780 0.033988 
1413394892.405761 0.004348 -1.374081 0.059517 
1413394892.605761 0.007865 -1.188993 0.063175 
1413394892.805760 0.025965 -0.875586 0.102024 
1413394893.005760 0.027314 -0.365017 0.087689 
1413394893.205760 0.048394 -0.339958 0.148753 
1413394893.405761 0.045468 -0.103007 0.130779 
1413394893.605761 0.050322 -0.036980 0.144618 
1413394893.805760 0.036849 0.021471 0.099247 
1413394894.055760 0.029273 0.020258 0.087821 
1413394894.305760 0.087477 -0.123799 0.302523 
1413394894.505760 0.095646 -0.139321 0.406135 
1413394894.655761 0.090056 -0.125696 0.377493 
1413394894.755760 0.083155 -0.088768 0.335884 
1413394894.855761 0.077718 -0.091163 0.320590 
1413394894.955760 0.078059 -0.093424 0.321584 
1413394895.055760 0.079850 -0.093982 0.325783 
1413394895.155761 0.075686 -0.097419 0.317157 
1413394895.255760 0.073912 -0.091545 0.310263 
1413394895.355761 0.035626 0.000514 0.144368 
1413394895.455760 0.034424 0.007018 0.137772 
1413394895.555760 0.033528 0.009525 0.134917 
1413394895.655761 0.033759 0.010601 0.134222 
1413394895.805760 0.035970 0.005885 0.141990 
1413394895.955760 0.032865 0.008661 0.133468 
1413394896.155761 0.030142 0.014232 0.123961 
1413394896.305760 0.028335 0.017497 0.120294 
1413394896.455760 0.022547 0.026140 0.108265 
1413394896.605761 0.021159 0.026406 0.103826 
1413394896.755760 -0.005619 0.045923 0.047334 
1413394896.905761 -0.006435 0.047040 0.044828 
1413394897.055760 -0.006748 0.043730 0.044160 
1413394897.205760 -0.008396 0.051168 0.041302 
1413394897.405761 -0.024568 0.084291 0.009729 
1413394897.605761 -0.040569 0.094432 0.001060 
1413394897.805760 -0.044110 0.096294 -0.006712 
1413394898.005760 -0.044349 0.119823 -0.005973 
1413394898.205760 -0.043723 0.120473 -0.005793 
1413394898.405761 -0.036311 0.143070 0.009598 
1413394898.705760 -0.037267 0.135351 0.009829 
1413394898.905761 -0.037443 0.131493 0.013659 
1413394899.155761 -0.037418 0.126855 0.017470 
1413394899.355761 -0.028722 0.141526 0.035341 
1413394899.605761 -0.022642 0.127555 0.049335 
1413394899.855761 -0.020145 0.127439 0.055832 
1413394900.055760 -0.023907 0.126296 0.049660 
1413394900.305760 -0.023097 0.121530 0.049544 
1413394900.505760 -0.022493 0.123666 0.049904 
1413394900.705760 -0.022526 0.124049 0.050098 
1413394900.905761 -0.023170 0.123821 0.049490 
1413394901.105761 -0.022613 0.122652 0.050341 
1413394901.255760 -0.022822 0.122402 0.050190 
1413394901.405761 -0.022768 0.122610 0.050431 
1413394901.555760 -0.022557 0.122231 0.051005 
1413394901.705760 -0.022614 0.122641 0.050656 
1413394901.855761 -0.022793 0.122704 0.050243 
1413394901.955760 -0.022779 0.122679 0.050340 
1413394902.055760 -0.022762 0.122572 0.050373 
1413394902.155761 -0.022768 0.122561 0.050393 
1413394902.255760 -0.022764 0.122653 0.050379 
1413394902.355761 -0.022752 0.122669 0.050415 
1413394902.455760 -0.022743 0.122611 0.050449 
1413394902.555760 -0.022710 0.122617 0.050475 
1413394902.655761 -0.022729 0.122699 0.050453 
1413394902.755760 -0.022687 0.122563 0.050518 
1413394902.855761 -0.022687 0.122535 0.050529 
1413394902.955760 -0.022686 0.122541 0.050516 
1413394903.155761 -0.022819 0.123346 0.050348 
1413394903.355761 -0.023918 0.122453 0.047596 
1413394903.455760 -0.023601 0.123507 0.047728 
1413394903.655761 -0.023578 0.123974 0.048251 
1413394903.805760 -0.023353 0.124178 0.048428 
1413394903.955760 -0.023503 0.124006 0.048104 
1413394904.105761 -0.023638 0.123481 0.048149 
1413394904.255760 -0.024518 0.123010 0.046687 
